35	-12.7872553416639
46	-9.28062072259787
50	-29.7381454790061
390	3.75876973473815
411	-9.25266276128842
245	12.8051496288488
505	-1.6605225055534
395	-21.8080715102997
1216	-19.3601047339601
571	-21.762665224612
394	-28.7744400813742
469	-15.7541611043438
418	-8.1032385391619
204	-30.3081120879184
458	-15.1146169401996
72	-16.8347344592627
463	-2.75570625845014
377	-7.08197422088489
133	-16.3311901124644
556	-28.1497514044731
512	-19.5089273669326
507	-16.9526210326771
548	-5.33197603007971
499	-22.8262048784608
388	-20.4571552317457
444	-5.93827967381158
425	-18.2973173220329
530	3.22302203411575
438	-21.5420200691575
550	1.87497052256434
537	-23.9269574850583
374	-16.0045915333965
406	-28.9933962439281
403	-2.27994881909778
555	1.99190306909919
448	12.5081312689305
358	-22.7967144569989
70	14.9338431988691
443	-10.0098899342706
480	-24.5122125142583
574	-0.583154836269393
543	-0.496428602070314
437	-26.8786203149744
545	-20.079122319464
389	10.619832796997
570	4.98936512866499
40	-10.5556827854012
428	-12.6423907612723
24	-16.6317893658596
452	4.07322270731793
246	4.32761648395526
397	-4.22521524942139
373	-22.3204321695652
583	-37.9801583920984
453	-37.534786638064
433	-26.3109718975876
485	-24.7697829859411
398	-15.5965757396156
178	-14.8543926630625
14	-29.4845911413367
489	-9.31608752224611
510	-0.400015491186718
423	-7.09742310117592
466	6.1557619447287
238	-20.0345521517319
538	-1.84588625471895
408	-33.0138180587707
399	9.13389798868221
154	-0.752942632979391
25	-2.55535115366079
15	-9.10233562177784
508	-2.93133344215043
456	-24.6124132293021
544	-6.52274331452741
19	-41.9397748908973
396	-1.59759519079482
514	-21.746379762399
451	-13.8990439757237
471	-24.7524044829967
375	-39.202652610544
382	-6.36187327656473
407	17.5967687335465
430	-5.908746914643
552	-7.36804732939961
521	0.852983497716134
400	-1.02345241889882
369	6.05401144391257
540	-7.74189397999871
563	-22.5023172156955
432	29.8610648157034
419	-22.1960760897097
230	-14.5278516955371
99	22.1084872426523
844	-19.5047640941798
715	-37.9906077967579
67	7.02187067684546
137	4.63774488783011
171	-34.0993738276105
3	0.409352975347608
840	-25.856716504088
877	-2.27841938935554
326	-4.30115106879051
31	-8.3860563798598
777	-9.18217982719244
795	-14.6900425372351
4	-10.9475763279508
723	-9.32917963540817
771	21.7085633021924
160	24.1374831138472
27	-13.0213584574086
205	2.63784350266275
89	0.918821022472599
769	-18.5712665952413
783	-4.9625911008077
901	-18.2056219450005
900	-3.95488401326625
714	-6.33762078824132
810	-10.108779002209
175	-12.2589312904545
190	12.0328681350265
854	-21.9267042531761
742	7.5534012543705
796	-40.5645348232007
780	-25.9753732588455
167	-2.55122203477887
728	-17.2052105526327
1221	7.58755103088338
803	-4.69047472859996
890	-40.6746996627943
759	-9.30697909899129
798	-31.696157439825
223	-20.4066229548195
703	8.81103027317634
911	-33.6262177461013
710	11.3693424863952
243	-8.20368530909839
702	-18.5653028767061
65	-34.5564622904774
1223	-24.554244877289
739	-37.8543830507913
791	1.73040693622315
752	-28.7592604322693
818	-12.560786143662
778	5.58588473170322
225	-3.74288464958159
716	3.55072622915436
821	-19.0951183061784
98	-14.7383546440762
13	7.28518293738509
97	-7.7036893711451
823	-7.29755336408315
744	-2.41964055155303
150	-6.883149365166
779	10.1706685047415
864	6.15820180297138
831	-10.1336514376015
704	18.2430415272925
851	-1.93333502560051
894	-3.09056772264398
1	4.17464760988147
176	-8.41736065461714
725	-7.16019514155682
808	-1.24273065221555
188	10.7311939270762
816	-16.8852136936318
708	68.0015805454398
885	3.90248024933758
904	-7.7295868671005
732	-7.96301451657008
21	-25.6556005605976
906	-11.638282013237
793	-12.0438792978031
266	9.53995839674919
299	-30.126315099535
300	-10.4049943926075
298	-27.8286391750147
324	-7.83156646111161
289	29.1948325818299
339	-3.57445309137276
350	-18.952981446431
359	-12.7508181847337
1224	-19.8645011301684
345	-17.7620606806491
315	-5.16845781126671
304	-16.0130107557381
307	-14.1014874089711
305	-2.81602396469591
775	-17.5507894509117
893	-35.0175762323243
755	-13.7857633690895
332	-25.2579589594526
260	-14.2414940515225
287	-37.6257418755056
283	-15.2197699334154
293	5.80539701565137
1227	-16.284464391325
291	-16.6258341513575
360	6.20547642447247
297	-21.7732531064943
882	-22.9468727242511
149	-14.1797353363757
1244	-29.8075810519928
1250	-5.76703146177624
120	-13.2569562880099
215	-24.2279516742756
110	-31.5459657175284
1259	-6.07489885584635
112	-9.63081435295016
108	-6.21251380448301
103	28.4040699864397
1263	-18.2408061536137
1268	63.3959927521276
1271	-6.71722283519827
1272	1.2620244850123
107	3.23517729687596
1274	-16.2823432326856
1276	0.624675313290805
127	-3.84849233192719
1288	-43.7656586749889
122	26.3387830257364
185	5.62099076982988
217	-8.56127016008405
1292	-23.4859648184571
39	0.422399471896347
729	12.005601248851
52	-13.2434366701793
753	-23.7085306111711
706	-19.5366405927824
813	-2.70262490511656
909	-23.390598000238
807	-35.1264781648744
841	-27.0613513399605
720	-58.9865792343118
754	-29.8628250578919
751	-21.187172559704
814	5.356211542941
774	1.23845296441962
849	6.15235945539302
789	-25.7282606015879
876	-16.3963395032205
731	-4.6454939466571
790	-43.9196340768382
5	-7.79068059908851
868	-14.3685829051695
811	33.9907167782859
888	-3.1102176921384
866	8.82882237913586
727	-16.2908455916203
1094	-5.69383311642694
913	-16.5032147869898
1004	-13.5249806830242
922	33.4564032769278
28	-12.5385443518048
1017	-6.8984817184225
1057	-9.3068888810935
949	-8.07130953081852
1102	-4.61270322022904
1121	-38.0466555934997
977	3.51609670907776
948	-17.4131003378305
1098	-19.9622842845281
928	-14.3370184694706
148	-2.41279358020605
1060	-22.3548355507536
1123	-9.36023488018473
1069	10.7502710315321
57	18.7897494053872
1085	32.0876471619747
221	17.2965090585476
1103	3.17791159228096
45	-7.29944379831313
939	-8.01845642161743
1080	-21.9033462433757
1230	15.0708737178114
1066	22.2843508376477
958	-18.2842094456555
986	-0.798317871888768
1093	-8.49349213500628
962	-26.2964900701476
71	-8.51692306709855
36	4.76694326457078
12	-16.5883527970522
1109	18.0456704934908
1095	16.2279253737069
942	-11.1308177103914
84	8.69145833775551
1070	-5.79354849927263
1302	-29.4495488324011
1034	1.42049524811917
1026	-19.5027640349573
1050	-9.06326898460939
79	-33.4437441171784
952	33.8238405282623
1035	-18.1912166129031
38	15.2629899847136
77	-8.50785531144107
1112	-17.1087278536027
1002	2.62866049720779
973	66.332519407142
1064	-6.06813031535173
924	-32.9787485012965
931	-4.1619243774954
926	-5.12716375544001
1113	-4.03222754907195
695	7.58727047812969
970	-18.8257966260267
29	-25.0010789717033
575	-6.28189559475638
182	9.30762272698962
186	-14.354920050846
1000	-1.3493632684933
965	-23.4357056420356
953	-7.57279869447055
932	-6.25721260178719
979	-34.8373202070903
1074	18.4440182478864
969	-15.1817927515543
64	5.22452026285397
61	-9.04902110268082
983	-1.10664021924878
60	-16.9154879927113
1009	-17.5067398149898
1086	-20.6702373617068
972	-21.562846635994
945	-20.5455536979493
1052	-14.2948815027484
985	-1.44087551257569
1107	12.9706978123269
960	-5.88727541355958
59	-8.71009352752417
1077	-26.1463356062585
1036	-33.5028570457611
959	-4.62247138371668
954	-37.2257184464415
141	12.1010860318242
1071	-21.1695773282924
1048	-19.25124004777
1124	1.61442772622109
938	-16.4250121679359
978	7.04594757537832
1106	-19.449105502023
251	2.11428235995844
1037	-4.63772240638639
69	-23.3335495822545
83	1.18123713848986
982	-1.28895764230954
588	29.0181153559605
1083	-8.22376640390494
1125	-35.5049823188835
82	-18.7792773044216
1090	-9.3049299140319
956	-15.0468942618362
950	-4.55702403518887
988	-0.856481503599926
68	-11.8990373862654
30	-15.6147425974752
917	27.2353224256566
1042	10.413010619603
11	-6.21743081017968
1134	-0.322818960701229
43	-8.91521691976824
690	-7.72907881171038
654	-1.23641655735503
662	-9.64802920113697
688	-20.2378187685493
700	-1.59815687922471
698	9.38575967585078
658	-15.4623818362493
660	-3.45435314524798
643	-1.10506725766323
677	2.27738293236986
621	-27.56189905624
94	-2.81430881068281
611	-41.4751525542235
652	-17.15599571631
647	-19.7778387922885
629	5.39064548326344
1168	-28.4663777000315
1192	-3.4778863870011
1142	-19.3491702476646
232	-29.310968274032
1146	-9.64167215909995
1209	-22.5383589603322
1239	-10.4728780580878
1150	7.30846683828897
41	-0.93879726043514
85	10.7597903230519
80	-8.74983515396394
95	-15.224577750501
44	-32.3674658240163
1190	-25.5851245305099
209	-23.7981187407342
1210	-27.5905286393297
1197	-0.470403338326333
1154	-5.11803101538486
49	-18.6209536478032
53	-25.4582775091305
224	27.2121250321295
1187	-10.7998009850009
1157	-7.91863197737321
1205	-38.2838571240481
135	-16.6395165630477
1147	7.31066830573702
169	-23.4296695246762
590	-31.6456010016706
33	-42.3514713486891
1139	4.12179752187051
192	-8.85143526154815
1207	1.39169662881501
220	-7.65051891024257
1232	-3.26710234165868
1148	0.581264834856685
1211	-13.4715669922435
16	-12.4245938149765
1170	9.83382996007563
73	-10.4986809311721
242	-0.946262538323515
181	-0.291902710548399
203	-4.15286176718607
1215	-21.456836228875
22	-4.74170107494923
1163	-4.03587955864554
198	-10.7318351871777
1159	-5.62222058405382
1132	-7.63602152265491
1171	-22.6928027176535
483	-35.150459657419
554	-9.57074169110018
1063	-5.42464762404383
124	-42.3091582066342
436	-14.362823242651
997	-3.3444309704545
96	-31.0559991373283
191	-23.7836680583443
946	18.3457258530603
1222	-9.58820701813729
6	-0.493517229274177
760	-12.8970723787135
74	-4.12198627725839
653	16.4066295593871
967	-17.1241971894574
800	-0.856477289342015
826	5.85305395550478
1003	-14.3732739579508
859	17.0996602244213
907	-9.06170227902693
131	-20.8131285073173
867	0.444772894989137
947	-10.4974743335842
681	-8.24868596770273
199	-33.1019561438634
331	-29.6347121081387
236	-18.9225289678889
86	-40.4085579788835
657	-12.8890763820349
385	9.75063892267219
1301	-20.7600368944856
937	-8.59446236735952
32	-8.97748225080757
651	-16.2642539203504
179	-20.0550388499128
343	-36.58658367131
271	4.93301409422709
501	-8.5378466427286
1116	-19.2098771031574
581	-9.88124988124119
933	-8.3340080511551
214	-22.4150916099684
227	-14.3998403980692
797	-14.7701211902592
558	-3.91176833248619
1100	-17.947000423442
250	31.5877959196453
422	-22.5946361506143
632	8.87657490511178
610	-7.99983307931706
971	12.6996487993183
596	10.5346859294297
285	32.7116323840283
524	-6.35839550051596
494	-33.3254778995302
788	-12.8719740857888
787	-1.39439530945799
1011	-5.20760289523465
765	-16.0231492750253
966	-8.72969139939858
503	-10.0533968876466
1025	-15.932298932166
462	17.3109974340505
770	-12.7643620933214
576	-12.83764738906
852	-27.9835217749415
145	-10.9979928433057
991	-16.3108668014769
557	-18.5295554717475
357	-7.09917246536951
1165	-6.54370630896048
592	3.48196740834128
93	-4.0554806968096
1233	-16.0089683168405
786	-9.29898690737753
897	-21.4666166239638
459	0.0209861279265364
75	-7.17065045986893
620	-8.73490722650189
709	-9.94399332168191
